{"type":"NeuralNetwork","sizes":[12,12,8,1],"layers":[{"weights":[],"biases":[]},{"weights":[[5.916301727294922,-1.655873417854309,-3.567697525024414,0.28705957531929016,-0.9392426013946533,4.292675971984863,-0.18727006018161774,0.8632095456123352,0.2299705594778061,-0.9074981808662415,1.2588917016983032,0.30320143699645996],[-3.852050304412842,0.6597296595573425,3.005316972732544,1.31047785282135,1.203979253768921,-0.8134073615074158,0.37782910466194153,-1.100041151046753,1.044343113899231,0.526772677898407,-0.557331919670105,0.3775697946548462],[-4.979555130004883,-0.8480328917503357,0.06389255076646805,-0.48755866289138794,-0.4276641309261322,-2.6389217376708984,-0.6488490700721741,-0.2963181436061859,-0.41638538241386414,-0.8991981148719788,-1.582223892211914,-0.5013980865478516],[6.519970417022705,-2.354897975921631,-0.4133063554763794,-0.5458042025566101,-2.9485597610473633,2.8705320358276367,-1.2583874464035034,1.0875297784805298,0.6794933080673218,0.5944991707801819,0.15045633912086487,-1.8324189186096191],[-5.322928428649902,0.4491424858570099,1.6023658514022827,0.478550523519516,0.8824074864387512,-3.4409945011138916,-0.5083094239234924,-0.9591375589370728,-0.24510332942008972,1.241507887840271,-0.16621801257133484,0.07374604046344757],[-8.301390647888184,0.5197487473487854,0.5266431570053101,1.2870526313781738,-0.5568655729293823,-3.047372341156006,0.6801028251647949,-0.4487972557544708,-0.49994993209838867,-1.3109965324401855,-0.25236308574676514,-0.7848444581031799],[-2.4288320541381836,0.1244778111577034,1.3378934860229492,0.870591938495636,0.7877681255340576,-1.9795503616333008,0.5181189179420471,-0.891547679901123,-0.17226657271385193,-0.16813410818576813,-0.1937931925058365,0.7402197122573853],[3.075817584991455,-0.35108351707458496,-0.3508397042751312,-0.520847499370575,-0.09727288782596588,1.4229204654693604,-0.29666081070899963,0.4605497419834137,0.07152610272169113,0.25417155027389526,0.1908065378665924,-0.2501782178878784],[-10.40925407409668,0.8449602723121643,1.3713127374649048,-1.767113447189331,-1.7209349870681763,-5.0851006507873535,-1.6688165664672852,-0.4992314279079437,-1.7706639766693115,-0.4649079144001007,-0.03086826018989086,-1.1295902729034424],[3.3388943672180176,-1.4755921363830566,0.06465929746627808,-1.0356652736663818,0.5986141562461853,2.882791519165039,-1.7450604438781738,0.4517577886581421,-0.013006389141082764,0.24526304006576538,0.035270869731903076,-1.2802447080612183],[-8.136590957641602,1.3958663940429688,4.070435047149658,2.531813621520996,2.589141607284546,-5.055229187011719,-0.5822572708129883,-2.1424508094787598,-0.5530582070350647,2.4253029823303223,-0.43422645330429077,0.7115330696105957],[2.343533515930176,-0.1596761792898178,-0.32204627990722656,-0.8077959418296814,-0.5244773030281067,1.266520380973816,-0.3469858169555664,0.48374032974243164,0.07976613193750381,0.014870586805045605,-0.4128364324569702,-0.5123918652534485]],"biases":[-0.06549528986215591,-0.004004592075943947,-0.13832542300224304,-0.04166834056377411,-0.03371455892920494,0.13318759202957153,-0.20840944349765778,0.08242464065551758,-0.09956543892621994,-0.04268205538392067,-0.10865002125501633,0.08328427374362946]},{"weights":[[-6.262834548950195,5.5102949142456055,3.6445202827453613,0.542405366897583,3.680096387863159,3.4093000888824463,-0.1601925641298294,0.18172435462474823,3.8795833587646484,0.06288588792085648,4.583550930023193,-0.3800739347934723],[-0.8917216658592224,-0.21443691849708557,-0.14437144994735718,-1.258131980895996,-0.05101637542247772,0.21329742670059204,-0.4350379407405853,-0.2239941954612732,-0.5471081137657166,-0.995231032371521,0.20277810096740723,-0.8823021650314331],[0.30532950162887573,-0.7662372589111328,-0.5625823140144348,-2.0656139850616455,-0.672028660774231,-0.7059184312820435,-0.9247353672981262,0.6289821267127991,-1.9396263360977173,-2.260303258895874,-1.5650901794433594,-0.63960200548172],[-0.4435140788555145,-0.3165477514266968,-0.4127502143383026,-1.8411169052124023,-0.44396117329597473,0.011268695816397667,-0.47955262660980225,0.16202029585838318,-1.0902987718582153,-1.7057653665542603,-0.5690751671791077,-0.6617223024368286],[-1.6543320417404175,0.2587544918060303,0.18380528688430786,-0.8420867323875427,0.2805425524711609,0.6855161190032959,-0.32135966420173645,-0.492900013923645,-0.3043258786201477,-0.7772849202156067,0.4007341265678406,-1.0350931882858276],[-0.9118672013282776,-0.07796837389469147,-0.24181212484836578,-1.100650429725647,-0.1334858536720276,0.20934462547302246,-0.44440433382987976,-0.2635248899459839,-0.6199296712875366,-1.2204251289367676,-0.27161458134651184,-0.9564957022666931],[0.9736829996109009,-0.9334794282913208,-0.4445247948169708,-1.7025244235992432,-0.9751049876213074,-0.896501898765564,-0.7538569569587708,1.2466214895248413,-2.085824728012085,-4.012476921081543,-1.720680832862854,-0.5590090751647949],[1.9304274320602417,-3.0178518295288086,-0.9020485877990723,-2.7512946128845215,-2.8152217864990234,-2.71643328666687,-2.4111168384552,0.9154987335205078,-4.433711528778076,-1.2951644659042358,-4.528146266937256,-1.2372714281082153]],"biases":[-0.05024496093392372,-1.002862572669983,-1.2336809635162354,-0.7706440091133118,-0.8192970156669617,-0.7387404441833496,-0.8671118021011353,-3.111693859100342]},{"weights":[[-2.892246723175049,0.443843275308609,1.4285157918930054,1.0051956176757812,-0.28323468565940857,0.5281592607498169,1.9014861583709717,1.39178466796875]],"biases":[-0.023343777284026146]}],"inputLookup":{"angriff":0,"krit_chance":1,"krit_schaden":2,"doppelschlag":3,"ausweichen":4,"verteidigen":5,"leben_pro_treffer":6,"max_leben":7,"gluck":8,"mehr_kampfstaub":9,"mehr_xp":10,"mehr_coins":11},"inputLookupLength":12,"outputLookup":{"win":0},"outputLookupLength":1,"options":{"inputSize":0,"outputSize":0,"binaryThresh":0.5,"hiddenLayers":[12,8]},"trainOpts":{"activation":"sigmoid","iterations":5000,"errorThresh":0.005,"log":true,"logPeriod":500,"leakyReluAlpha":0.01,"learningRate":0.3,"momentum":0.1,"callbackPeriod":10,"timeout":"Infinity","beta1":0.9,"beta2":0.999,"epsilon":1e-8}}