{"type":"NeuralNetwork","sizes":[12,12,8,1],"layers":[{"weights":[],"biases":[]},{"weights":[[-7.24193000793457,0.7071658372879028,1.850271224975586,-1.0001057386398315,1.0415754318237305,-9.366268157958984,-1.160720944404602,-0.552381157875061,-2.250756025314331,-1.31203293800354,1.2054641246795654,-0.1733531802892685],[-4.015842437744141,0.39931565523147583,0.7312198281288147,0.7179995775222778,0.3107561767101288,-1.8371466398239136,0.3050474226474762,-0.6506534218788147,0.5558421015739441,-0.13228295743465424,-0.26453742384910583,0.30326029658317566],[-12.839922904968262,1.7541102170944214,2.6592304706573486,-0.031986966729164124,-3.603175640106201,-11.484925270080566,-0.3097037971019745,-0.4170532524585724,-1.4307137727737427,-3.8146727085113525,-4.765354156494141,1.2351704835891724],[5.476034164428711,-1.2938743829727173,-1.2312287092208862,0.4377676546573639,1.0094332695007324,5.285099983215332,-0.8321795463562012,0.33960312604904175,0.9481182098388672,1.8827605247497559,0.7815947532653809,-0.5490895509719849],[-7.165975093841553,1.4339503049850464,2.652399778366089,-2.0191538333892822,-0.6469923257827759,-6.719960689544678,1.3083255290985107,-0.44993025064468384,-2.3149170875549316,-1.6337769031524658,-0.3124914765357971,0.4921194612979889],[0.006322585511952639,-0.1939190775156021,0.031365323811769485,-0.10261932760477066,0.13531802594661713,-0.09629137814044952,-0.13077311217784882,-0.35712897777557373,0.0709504708647728,0.04727968946099281,0.19412660598754883,0.012356001883745193],[-2.362905502319336,0.26181164383888245,0.2337033450603485,-0.20542927086353302,-0.27954208850860596,-1.4284898042678833,0.508456826210022,2.6692163944244385,0.252067506313324,-0.10463398694992065,-0.5026654005050659,0.06454123556613922],[-2.077754497528076,-1.3032681941986084,4.042618751525879,0.49413156509399414,3.107656240463257,-2.485361337661743,0.024234458804130554,-1.6850392818450928,-1.5691046714782715,1.8653656244277954,-0.41327595710754395,-0.6995806694030762],[-3.5741384029388428,0.6298111081123352,4.005912780761719,0.35043448209762573,1.1766644716262817,-2.807528257369995,-0.9161435961723328,-2.006486654281616,0.1702561378479004,2.763826847076416,-2.007936954498291,0.41298073530197144],[0.3682836592197418,0.008184241130948067,0.018524358049035072,0.015190578065812588,0.1848118007183075,0.2816981077194214,-0.03394152224063873,-0.700456976890564,0.2422427535057068,0.06097552552819252,0.03359098359942436,0.14547745883464813],[12.884971618652344,-1.7560129165649414,-5.533468246459961,-5.493808746337891,-1.901436686515808,5.00335168838501,-3.7318572998046875,-5.704485893249512,-1.4539034366607666,-2.5011818408966064,-2.965756893157959,-3.9215922355651855],[-8.238321304321289,0.930846095085144,0.24975599348545074,-1.2673399448394775,-2.538710355758667,-4.5232343673706055,-1.0855605602264404,-0.6210163831710815,-1.936323881149292,-2.256920576095581,-2.5806260108947754,-1.6993639469146729]],"biases":[0.08360010385513306,-0.1291334331035614,0.4559600055217743,-0.1275002509355545,0.13974598050117493,0.036383941769599915,-0.05803688243031502,-0.1667497754096985,-0.12283850461244583,-0.1495284140110016,0.12153493613004684,-0.03571899235248566]},{"weights":[[1.1383562088012695,-0.0537114255130291,1.2847639322280884,-2.200737237930298,0.5747586488723755,-0.1729881912469864,-0.8417662978172302,0.8790905475616455,1.8080966472625732,-0.7179187536239624,-1.2878060340881348,0.5080063939094543],[-1.8414325714111328,-1.4190796613693237,-2.6127960681915283,-0.6137299537658691,-1.6557788848876953,0.0689566507935524,-2.7215237617492676,-1.1069748401641846,-1.4179164171218872,-0.09325652569532394,0.1881994605064392,-1.247626781463623],[-1.0576331615447998,-0.38144978880882263,-2.5237317085266113,-1.7951035499572754,-1.0265734195709229,0.014668646268546581,-1.6436372995376587,-0.7074124217033386,-0.8838472962379456,-0.46911874413490295,0.14704254269599915,-1.1527166366577148],[-2.2812979221343994,-2.0123708248138428,-3.957061529159546,-0.31584951281547546,-3.6558163166046143,0.08668967336416245,-3.068230390548706,-1.9292240142822266,-2.097015619277954,0.17788487672805786,7.469819068908691,-1.9566298723220825],[-0.8109636306762695,-0.38924935460090637,-2.5831518173217773,-1.7362629175186157,-0.9704210758209229,-0.01353252399712801,-1.712021827697754,-0.6333059072494507,-0.5735830664634705,-0.644443154335022,0.18929734826087952,-1.0140167474746704],[2.863124132156372,0.06930629909038544,2.3347020149230957,-3.0925776958465576,2.7198750972747803,-0.16702939569950104,-0.2734771966934204,3.720226287841797,5.946173191070557,-0.8171086311340332,-3.594681978225708,3.2815096378326416],[-2.118868112564087,-1.7536017894744873,-2.475708246231079,-0.18181930482387543,-1.9122769832611084,-0.004875062499195337,-3.0182461738586426,-1.3652656078338623,-1.4715842008590698,-0.18442226946353912,0.4075600802898407,-1.4505512714385986],[-1.2666760683059692,-0.8916046023368835,-2.534824848175049,-1.180340051651001,-1.8381719589233398,-0.014119448140263557,-2.241391181945801,-0.9197288751602173,-1.4688942432403564,-0.34572508931159973,0.31482771039009094,-1.1205530166625977]],"biases":[-1.9512096643447876,-2.0502891540527344,-1.9259024858474731,-2.3933517932891846,-1.8876384496688843,-1.9868261814117432,-2.0114762783050537,-1.8931533098220825]},{"weights":[[-1.2970664501190186,1.1122996807098389,0.9633489847183228,2.949326753616333,0.9399775266647339,-2.172417163848877,1.0534056425094604,1.0953154563903809]],"biases":[-0.11047931760549545]}],"inputLookup":{"angriff":0,"krit_chance":1,"krit_schaden":2,"doppelschlag":3,"ausweichen":4,"verteidigen":5,"leben_pro_treffer":6,"max_leben":7,"gluck":8,"mehr_kampfstaub":9,"mehr_xp":10,"mehr_coins":11},"inputLookupLength":12,"outputLookup":{"win":0},"outputLookupLength":1,"options":{"inputSize":0,"outputSize":0,"binaryThresh":0.5,"hiddenLayers":[12,8]},"trainOpts":{"activation":"sigmoid","iterations":5000,"errorThresh":0.005,"log":true,"logPeriod":500,"leakyReluAlpha":0.01,"learningRate":0.3,"momentum":0.1,"callbackPeriod":10,"timeout":"Infinity","beta1":0.9,"beta2":0.999,"epsilon":1e-8}}