{"type":"NeuralNetwork","sizes":[12,12,8,1],"layers":[{"weights":[],"biases":[]},{"weights":[[-5.3528289794921875,0.8617165684700012,4.306196689605713,0.7786331176757812,1.9333515167236328,-2.6560091972351074,-0.17141404747962952,-1.9620327949523926,-0.35583236813545227,1.8745118379592896,-0.4936427175998688,0.07417786866426468],[12.647682189941406,-1.6456623077392578,-1.579218864440918,1.0227925777435303,-1.0868110656738281,5.150365829467773,-2.553694486618042,1.7627030611038208,-1.6141756772994995,-2.2827701568603516,-4.794919490814209,2.412370443344116],[3.732828378677368,-0.23640534281730652,-0.4090981185436249,-0.19440671801567078,0.01857888698577881,1.9899060726165771,-0.8187419176101685,0.44838306307792664,-0.03869723528623581,0.9813063740730286,0.3056297302246094,-0.2881970703601837],[10.235340118408203,1.0719698667526245,-5.921080112457275,-2.027377128601074,-3.1840269565582275,2.486816167831421,-2.3497653007507324,1.8951666355133057,-0.005038041155785322,-0.7612965106964111,0.29921892285346985,-0.5747231245040894],[-5.3480730056762695,1.1713324785232544,0.23455564677715302,0.5747978091239929,-1.8162307739257812,-3.0634429454803467,2.0382730960845947,5.702407360076904,0.5925553441047668,-0.7690029144287109,-1.3628143072128296,1.062684178352356],[-2.96557879447937,0.4071791470050812,0.26960617303848267,0.6568944454193115,0.3082582950592041,-1.7917474508285522,0.2679769992828369,-0.40105167031288147,-0.08490527421236038,0.13559190928936005,-0.0006220133509486914,-0.0814085528254509],[-3.1145365238189697,-0.056111741811037064,1.2067569494247437,0.5543768405914307,0.7669576406478882,-1.7292882204055786,0.4980676472187042,-0.9282926917076111,0.44016483426094055,0.29870912432670593,0.28403279185295105,0.5496651530265808],[-11.913851737976074,1.581270456314087,2.9156980514526367,-2.491959571838379,-0.38861146569252014,-8.133501052856445,-0.3943243622779846,-0.3910571336746216,-3.604308843612671,0.12241824716329575,-0.18450133502483368,-3.9725022315979004],[-4.819924831390381,0.6512914896011353,1.4026410579681396,1.068806529045105,1.1858723163604736,-1.8998394012451172,0.2385411560535431,-1.0969735383987427,0.7982353568077087,0.2651057541370392,0.45584142208099365,1.1686102151870728],[-2.1772115230560303,1.0166821479797363,0.41091296076774597,0.555941641330719,0.2662482261657715,-0.8596869707107544,0.09167909622192383,-0.5366073250770569,0.15647143125534058,0.28741103410720825,-0.14530624449253082,0.2663200795650482],[-8.600299835205078,0.30083879828453064,4.120141983032227,-0.7167320251464844,2.391643524169922,-6.430995464324951,0.08868779987096786,-1.4403258562088013,-0.9712743759155273,4.983924388885498,-0.8832985758781433,-0.486280232667923],[-8.012740135192871,1.5777912139892578,1.0119472742080688,-0.5366687178611755,-0.4163236916065216,-5.815257549285889,0.9860634207725525,-0.5006586909294128,-1.7587509155273438,-0.7811777591705322,-0.27049151062965393,0.054502468556165695]],"biases":[-0.04152550920844078,0.04895278438925743,0.07451435178518295,0.16637513041496277,0.028993654996156693,-0.01842954009771347,0.09803850948810577,-0.14208512008190155,-0.07926756888628006,0.1229175478219986,-0.08170810341835022,0.12370100617408752]},{"weights":[[-0.9096401929855347,0.4338606297969818,-1.5493651628494263,-0.5006346702575684,-2.2052993774414062,-0.9685584902763367,-0.3203597664833069,-2.3127920627593994,-0.8060275912284851,-0.2717280387878418,-0.7915611863136292,-1.7063257694244385],[-1.5989010334014893,0.9756460785865784,-0.8438631296157837,-0.031900614500045776,-3.9396800994873047,-1.1576006412506104,-1.425257921218872,-2.39042067527771,-2.0239553451538086,-0.7389761209487915,-1.9368607997894287,-2.3036048412323],[-2.211686372756958,1.5812273025512695,-0.7635423541069031,0.1929708868265152,-4.495859622955322,-2.0473809242248535,-1.6319118738174438,-2.722097396850586,-2.959663152694702,-1.3720269203186035,-2.9005649089813232,-2.618046760559082],[-0.9711712002754211,0.5851378440856934,-1.3687949180603027,-0.5035672187805176,-2.5403077602386475,-0.9240283370018005,-0.5707470178604126,-2.4100019931793213,-1.085458517074585,-0.16565440595149994,-0.8173518776893616,-1.5869121551513672],[3.3370420932769775,-1.1310933828353882,-0.41457265615463257,-5.699453353881836,0.9514902234077454,0.16827113926410675,1.9163670539855957,3.4112396240234375,0.7037265300750732,0.09457511454820633,6.073666572570801,1.4605646133422852],[-1.1649080514907837,0.7532556653022766,-1.3644485473632812,-0.2766437232494354,-2.9471781253814697,-1.1935548782348633,-0.8723710775375366,-2.5356316566467285,-1.4597290754318237,-0.6578994393348694,-0.9682668447494507,-2.0535333156585693],[-1.4456013441085815,1.0127859115600586,-1.1118147373199463,-0.15419523417949677,-3.360746145248413,-1.1336866617202759,-1.1081366539001465,-2.3698017597198486,-1.2562997341156006,-0.6174260973930359,-1.704497218132019,-2.331843614578247],[-0.6070834994316101,-0.5956324338912964,-1.582045555114746,-0.7424979209899902,-1.027631163597107,-0.4262407720088959,-0.20617011189460754,-1.3821678161621094,-0.5881243348121643,-0.06177583709359169,-0.450477659702301,-0.7768957614898682]],"biases":[-1.852625846862793,-2.151205539703369,-2.6444849967956543,-1.8751872777938843,0.03515595197677612,-1.957636833190918,-2.2168455123901367,-1.4148473739624023]},{"weights":[[0.5990903973579407,1.1178321838378906,1.3684375286102295,0.6512612104415894,-3.197019100189209,0.7999223470687866,0.8918313384056091,0.2249431014060974]],"biases":[-0.01239992119371891]}],"inputLookup":{"angriff":0,"krit_chance":1,"krit_schaden":2,"doppelschlag":3,"ausweichen":4,"verteidigen":5,"leben_pro_treffer":6,"max_leben":7,"gluck":8,"mehr_kampfstaub":9,"mehr_xp":10,"mehr_coins":11},"inputLookupLength":12,"outputLookup":{"win":0},"outputLookupLength":1,"options":{"inputSize":0,"outputSize":0,"binaryThresh":0.5,"hiddenLayers":[12,8]},"trainOpts":{"activation":"sigmoid","iterations":5000,"errorThresh":0.005,"log":true,"logPeriod":500,"leakyReluAlpha":0.01,"learningRate":0.3,"momentum":0.1,"callbackPeriod":10,"timeout":"Infinity","beta1":0.9,"beta2":0.999,"epsilon":1e-8}}